digraph Tree {
node [shape=box, fontname="helvetica"] ;
edge [fontname="helvetica"] ;
0 [label="X[0] <= 3.675\ngini = 0.466\nsamples = 181\nvalue = [114, 67]"] ;
1 [label="X[4] <= 2.487\ngini = 0.461\nsamples = 100\nvalue = [36, 64]"] ;
0 -> 1 [labeldistance=2.5, labelangle=45, headlabel="True"] ;
2 [label="X[0] <= 3.465\ngini = 0.172\nsamples = 42\nvalue = [4, 38]"] ;
1 -> 2 ;
3 [label="X[1] <= 1.114\ngini = 0.136\nsamples = 41\nvalue = [3, 38]"] ;
2 -> 3 ;
4 [label="gini = 0.0\nsamples = 28\nvalue = [0, 28]"] ;
3 -> 4 ;
5 [label="X[7] <= 4.028\ngini = 0.355\nsamples = 13\nvalue = [3, 10]"] ;
3 -> 5 ;
6 [label="gini = 0.0\nsamples = 2\nvalue = [2, 0]"] ;
5 -> 6 ;
7 [label="X[11] <= 0.998\ngini = 0.165\nsamples = 11\nvalue = [1, 10]"] ;
5 -> 7 ;
8 [label="X[12] <= 0.783\ngini = 0.444\nsamples = 3\nvalue = [1, 2]"] ;
7 -> 8 ;
9 [label="gini = 0.0\nsamples = 1\nvalue = [1, 0]"] ;
8 -> 9 ;
10 [label="gini = 0.0\nsamples = 2\nvalue = [0, 2]"] ;
8 -> 10 ;
11 [label="gini = 0.0\nsamples = 8\nvalue = [0, 8]"] ;
7 -> 11 ;
12 [label="gini = 0.0\nsamples = 1\nvalue = [1, 0]"] ;
2 -> 12 ;
13 [label="X[8] <= 1.967\ngini = 0.495\nsamples = 58\nvalue = [32, 26]"] ;
1 -> 13 ;
14 [label="X[0] <= 3.27\ngini = 0.497\nsamples = 48\nvalue = [22, 26]"] ;
13 -> 14 ;
15 [label="X[0] <= 2.8\ngini = 0.444\nsamples = 24\nvalue = [16, 8]"] ;
14 -> 15 ;
16 [label="gini = 0.0\nsamples = 2\nvalue = [0, 2]"] ;
15 -> 16 ;
17 [label="X[5] <= 3.363\ngini = 0.397\nsamples = 22\nvalue = [16, 6]"] ;
15 -> 17 ;
18 [label="gini = 0.0\nsamples = 7\nvalue = [7, 0]"] ;
17 -> 18 ;
19 [label="X[2] <= 1.718\ngini = 0.48\nsamples = 15\nvalue = [9, 6]"] ;
17 -> 19 ;
20 [label="X[3] <= 2.1\ngini = 0.32\nsamples = 5\nvalue = [1, 4]"] ;
19 -> 20 ;
21 [label="X[11] <= 1.091\ngini = 0.5\nsamples = 2\nvalue = [1, 1]"] ;
20 -> 21 ;
22 [label="gini = 0.0\nsamples = 1\nvalue = [0, 1]"] ;
21 -> 22 ;
23 [label="gini = 0.0\nsamples = 1\nvalue = [1, 0]"] ;
21 -> 23 ;
24 [label="gini = 0.0\nsamples = 3\nvalue = [0, 3]"] ;
20 -> 24 ;
25 [label="X[11] <= 1.255\ngini = 0.32\nsamples = 10\nvalue = [8, 2]"] ;
19 -> 25 ;
26 [label="X[0] <= 3.02\ngini = 0.198\nsamples = 9\nvalue = [8, 1]"] ;
25 -> 26 ;
27 [label="X[4] <= 2.882\ngini = 0.5\nsamples = 2\nvalue = [1, 1]"] ;
26 -> 27 ;
28 [label="gini = 0.0\nsamples = 1\nvalue = [1, 0]"] ;
27 -> 28 ;
29 [label="gini = 0.0\nsamples = 1\nvalue = [0, 1]"] ;
27 -> 29 ;
30 [label="gini = 0.0\nsamples = 7\nvalue = [7, 0]"] ;
26 -> 30 ;
31 [label="gini = 0.0\nsamples = 1\nvalue = [0, 1]"] ;
25 -> 31 ;
32 [label="X[8] <= 1.346\ngini = 0.375\nsamples = 24\nvalue = [6, 18]"] ;
14 -> 32 ;
33 [label="X[8] <= 0.78\ngini = 0.133\nsamples = 14\nvalue = [1, 13]"] ;
32 -> 33 ;
34 [label="X[0] <= 3.565\ngini = 0.5\nsamples = 2\nvalue = [1, 1]"] ;
33 -> 34 ;
35 [label="gini = 0.0\nsamples = 1\nvalue = [0, 1]"] ;
34 -> 35 ;
36 [label="gini = 0.0\nsamples = 1\nvalue = [1, 0]"] ;
34 -> 36 ;
37 [label="gini = 0.0\nsamples = 12\nvalue = [0, 12]"] ;
33 -> 37 ;
38 [label="X[10] <= 0.487\ngini = 0.5\nsamples = 10\nvalue = [5, 5]"] ;
32 -> 38 ;
39 [label="gini = 0.0\nsamples = 4\nvalue = [0, 4]"] ;
38 -> 39 ;
40 [label="X[3] <= 2.506\ngini = 0.278\nsamples = 6\nvalue = [5, 1]"] ;
38 -> 40 ;
41 [label="X[0] <= 3.325\ngini = 0.5\nsamples = 2\nvalue = [1, 1]"] ;
40 -> 41 ;
42 [label="gini = 0.0\nsamples = 1\nvalue = [1, 0]"] ;
41 -> 42 ;
43 [label="gini = 0.0\nsamples = 1\nvalue = [0, 1]"] ;
41 -> 43 ;
44 [label="gini = 0.0\nsamples = 4\nvalue = [4, 0]"] ;
40 -> 44 ;
45 [label="gini = 0.0\nsamples = 10\nvalue = [10, 0]"] ;
13 -> 45 ;
46 [label="X[4] <= 3.296\ngini = 0.071\nsamples = 81\nvalue = [78, 3]"] ;
0 -> 46 [labeldistance=2.5, labelangle=-45, headlabel="False"] ;
47 [label="X[4] <= 3.247\ngini = 0.204\nsamples = 26\nvalue = [23, 3]"] ;
46 -> 47 ;
48 [label="X[1] <= 1.58\ngini = 0.08\nsamples = 24\nvalue = [23, 1]"] ;
47 -> 48 ;
49 [label="gini = 0.0\nsamples = 18\nvalue = [18, 0]"] ;
48 -> 49 ;
50 [label="X[9] <= 0.404\ngini = 0.278\nsamples = 6\nvalue = [5, 1]"] ;
48 -> 50 ;
51 [label="gini = 0.0\nsamples = 1\nvalue = [0, 1]"] ;
50 -> 51 ;
52 [label="gini = 0.0\nsamples = 5\nvalue = [5, 0]"] ;
50 -> 52 ;
53 [label="gini = 0.0\nsamples = 2\nvalue = [0, 2]"] ;
47 -> 53 ;
54 [label="gini = 0.0\nsamples = 55\nvalue = [55, 0]"] ;
46 -> 54 ;
}
